svm_type c_svc
kernel_type rbf
gamma 0.125
nr_class 2
total_sv 64
rho 1.78798
label 1 0
probA -1.96447
probB 0.364651
nr_sv 27 37
SV
1.804433257609784 1:-1 2:-1 3:-1 4:-1 5:-1 6:-1 7:-1 8:-1 9:1 10:-1 11:1 12:-0.318182 
3.189430436297346 1:-1 2:-1 3:-1 4:1 5:-1 6:-1 7:-1 8:-1 9:-1 10:-1 11:1 12:-1 
6.104014294973738 3:-1 4:-1 5:-1 6:-1 7:-1 8:-1 9:-1 10:-1 11:1 12:1 
6.468190613949633 3:-1 4:-1 5:-1 6:-1 7:-1 8:-1 9:1 10:-1 11:1 12:0.409091 
8 1:-1 2:-1 3:-1 4:-1 5:-1 6:-1 7:-0.333333 8:-0.5 9:1 10:-1 11:1 12:0.136364 
5.515254559756293 1:-1 3:-1 4:-1 5:-1 6:-1 7:-1 8:0.5 9:-1 10:-1 11:-1 12:0.818182 
8 1:-1 2:-1 3:-1 4:-1 5:-1 6:-1 7:-1 8:-0.5 9:-1 10:-1 11:-1 12:-1 
8 1:-1 3:-1 4:-1 5:-1 6:-1 7:-1 8:-1 9:1 10:-1 11:1 12:0.136364 
0.1580766926227747 2:-1 3:-1 4:-1 5:-1 6:-1 7:-0.333333 8:-0.5 9:-1 10:-1 11:1 12:-1 
3.294720454730127 1:-1 3:-1 4:-1 5:1 6:-1 7:-1 9:-1 10:-1 11:-1 12:0.0454545 
5.032482154528502 1:-1 2:-1 3:-1 4:-1 5:-1 6:1 7:-1 8:-1 9:-1 10:-1 11:1 12:-1 
8 1:-1 2:-1 3:-1 4:-1 5:-1 6:-1 7:-0.333333 8:-1 9:1 10:-1 11:1 12:0.5 
8 1:-1 3:-1 4:-1 6:-1 7:-1 8:-0.5 9:-1 10:-1 11:-0.5 12:1 
8 1:-1 2:-1 3:-1 4:-1 6:-1 7:-1 8:-1 9:-1 10:-1 11:0.136364 12:-1 
0.3842404113357228 1:-1 3:-1 4:-1 5:-1 6:-1 7:-1 9:-1 10:1 11:1 12:-1 
8 1:-1 2:-1 3:-1 4:-1 5:-1 6:-1 7:-0.333333 8:0.5 9:-1 10:-1 11:-1 12:-0.0454545 
8 3:-1 4:-1 5:-1 6:-1 7:-1 8:-1 9:-1 10:-1 11:0.636364 12:1 
0.7028738262668662 1:-1 4:-1 5:-1 6:-1 7:-1 8:-1 9:1 10:1 11:1 12:-1 
8 1:-1 3:-1 4:-1 6:-1 7:-1 8:-0.5 9:-1 10:-1 11:-1 12:1 
8 1:-1 3:-1 4:-1 6:-1 7:-1 8:-0.5 9:-1 10:-1 11:-1 12:1 
0.6123551694696678 2:-1 3:-1 4:-1 5:-1 6:-1 7:-1 8:-1 9:1 10:1 11:1 12:-1 
1.288323934794109 1:-1 2:-1 4:-1 6:-1 7:-1 8:-1 9:-1 10:-1 11:0.863636 12:-1 
1.35303552931789 1:-1 3:-1 4:-1 5:-1 6:-1 7:-1 8:1 9:1 10:1 11:1 12:-1 
4.020806642081158 2:-1 3:-1 4:-1 6:-1 7:-1 9:-1 10:-1 11:0.409091 12:1 
8 2:-1 3:-1 4:-1 6:-1 7:-1 9:-1 10:-1 11:0.227273 12:1 
5.494515970603731 2:-1 3:-1 4:-1 5:-1 6:-1 7:-1 8:-1 9:1 10:-1 11:1 12:-0.0454545 
8 1:-1 2:-1 3:-1 4:-1 6:-1 7:-1 8:-1 9:-1 10:-1 11:-1 12:-0.136364 
-8 2:-1 3:-1 4:-1 5:-1 6:-1 7:-1 8:-1 9:-1 10:-1 11:1 12:-1 
-1.551710928309424 2:-1 3:-1 4:-1 6:-1 7:-1 8:-1 9:-1 10:-1 11:-0.772727 12:1 
-8 3:-1 4:-1 5:-1 6:-1 7:-1 8:-1 9:-1 10:-1 11:-0.136364 12:1 
-0.1007980159100642 1:-1 3:-1 4:-1 5:-1 6:1 7:-1 8:-1 9:1 10:-1 11:1 12:-0.318182 
-4.963861442421573 2:-1 3:-1 4:-1 5:-1 6:-1 7:-0.333333 8:0.5 9:-1 10:-1 11:-0.136364 12:1 
-0.2880761928974969 1:-1 2:-1 3:-1 4:-1 5:-1 6:-1 7:-0.333333 8:-0.5 9:1 10:-1 11:1 12:0.590909 
-0.333612306186882 1:-1 2:-1 3:-1 4:-1 5:-1 6:-1 7:-1 8:-1 9:1 10:-1 11:1 12:0.5 
-8 2:-1 3:-1 4:-1 5:-1 6:-1 7:-1 8:-1 9:1 10:-1 11:1 12:0.5 
-1.062313309037824 1:-1 2:1 3:-1 4:-1 5:-1 6:-1 7:-0.333333 8:-1 9:-1 10:-1 11:-0.136364 12:1 
-0.3909001438158401 1:-1 2:-1 3:-1 4:-1 5:-1 6:1 7:1 8:-0.5 9:-1 10:1 11:1 12:-1 
-1.468695258677917 1:-1 2:-1 4:-1 5:-1 6:-1 7:-0.333333 9:-1 10:-1 11:-1 12:-1 
-1.704854090791724 1:-1 3:-1 4:-1 5:-1 6:-1 7:-0.333333 8:-0.5 9:-1 10:-1 11:-1 12:1 
-8 1:-1 3:-1 4:-1 5:-1 6:-1 7:-1 8:-1 9:1 10:-1 11:1 12:0.681818 
-8 1:-1 2:-1 3:-1 4:-1 5:-1 6:-1 7:-0.333333 9:1 10:-1 11:1 12:0.5 
-8 1:-1 3:-1 4:-1 5:1 6:-1 7:-1 9:-1 10:-1 11:-1 12:0.227273 
-0.129641066302758 1:-1 3:-1 4:-1 6:-1 7:0.333333 8:-1 9:1 10:-1 11:1 12:0.590909 
-4.557437387905741 1:-1 2:-1 3:-1 4:-1 5:-1 6:-1 7:-1 8:-1 9:1 10:-1 11:1 12:0.5 
-3.109129446525575 2:1 4:-1 6:-1 7:-1 8:-0.5 9:-1 10:-1 11:-1 12:0.318182 
-1.038176359818763 1:-1 2:-1 3:-1 4:1 6:-1 7:-0.333333 8:-0.5 9:1 10:1 11:1 12:-1 
-8 1:-1 2:-1 3:-1 4:-1 5:-1 6:-1 7:-1 8:0.5 9:-1 10:-1 11:-0.318182 12:1 
-0.385531280665126 1:-1 2:-1 3:-1 4:-1 5:-1 6:-1 7:-1 8:0.5 9:-1 10:-1 11:-0.0454545 12:1 
-2.752484027792444 4:-1 5:-1 6:-1 7:-1 8:-0.5 9:-1 10:-1 11:-0.0454545 12:1 
-6.609537619866974 1:-1 2:-1 3:-1 4:-1 6:-1 7:-1 8:-1 9:-1 10:-1 11:0.954545 12:1 
-2.468647473201804 1:-1 3:-1 4:-1 5:-1 6:-1 7:-1 8:-1 9:1 10:-1 11:1 12:0.772727 
-1.682597476185671 1:-1 2:-1 3:-1 4:1 5:-1 6:-1 7:-1 8:-1 9:-1 10:1 11:1 12:-1 
-4.532551846172029 1:-1 2:-1 3:-1 4:-1 5:-1 6:1 7:-1 8:-1 9:1 10:-1 11:1 12:-0.772727 
-0.6219737704289283 1:-1 2:-1 3:-1 4:1 6:-1 7:-1 9:-1 10:-1 11:-1 12:1 
-8 1:-1 2:-1 3:-1 4:-1 5:-1 6:-1 7:-1 8:-0.5 9:-1 10:-1 11:-1 12:-0.772727 
-4.098133953447273 1:-1 3:-1 4:-1 6:-1 7:-1 8:-1 9:1 10:-1 11:1 12:0.590909 
-4.900285204689844 1:-1 3:-1 4:-1 5:-1 6:-1 7:-1 8:-1 9:-1 10:-1 11:-1 12:0.227273 
-0.1601706591192058 1:-1 3:-1 4:-1 6:1 7:-0.333333 8:-0.5 9:-1 10:-1 11:-1 12:-0.954545 
-2.730024044774982 1:-1 2:-1 3:-1 4:-1 6:-1 7:-1 8:-1 9:-1 10:-1 11:-1 12:-1 
-1.307053737588481 1:-1 2:-1 3:-1 4:-1 5:-1 6:1 7:-1 9:-1 10:-1 11:-1 12:-1 
-8 1:-1 2:-1 3:-1 4:-1 6:-1 7:-1 8:-0.5 9:-1 10:-1 11:-0.863636 12:1 
-0.6536803367742344 1:-1 2:-1 3:-1 4:1 6:-1 7:-1 8:-0.5 9:-1 10:-1 11:-1 12:-1 
-7.820876569028761 1:-1 2:-1 3:-1 4:-1 6:-1 7:-1 8:-1 9:-1 10:-1 11:-1 12:-1 
-8 1:-1 3:-1 4:-1 6:-1 7:-0.333333 8:-1 9:-1 10:-1 11:-0.0454545 12:1 
